tree
version=v3
num_class=1
num_tree_per_iteration=1
label_index=0
max_feature_idx=35
objective=binary sigmoid:1
feature_names=ICULOS HR O2Sat Temp SBP MAP DBP Resp FiO2 pH PaCO2 BUN Calcium Creatinine Glucose Magnesium Potassium Hct Hgb WBC Platelets Age Sex multiplyHRSBP multiplyHRDBP multiplyO2SatSBP multiplyMAPSBP multiplyAgeICULOS multiplySBPDBP multiplyHRO2Sat multiplyAgeO2 multiplyAgeSex multiplyRespHR addHRSBP addHRResp addSBPDBP
feature_infos=[-1.1651041666666668:16.282812500000002] [-3.8340323547034147:7.5500299580587171] [-26.132203389830508:0.98644067796610047] [-15.088235294117643:7.8823529411764692] [-4.390328151986183:6.8359240069084626] [-3.8177339901477838:13.423645320197046] [-3.1524796447076242:16.906735751295336] [-3.5506958250497016:16.131212723658052] [-95.301886792452819:2.8113207547169812] [-8.8333333333333375:5.8333333333333428] [-3.5325301204819275:7.0698795180722884] [-1.3057553956834533:10.744604316546763] [-4.3962264150943398:7.9308176100628938] [-0.80555555555555547:10.977777777777776] [-2.7364818617385351:18.732831394022359] [-6.0999999999999996:22.900000000000006] [-5.2222222222222223:16.444444444444443] [-4.1531190926275992:6.4139886578449907] [-4.3879781420765029:7.360655737704918] [-1.5730659025787965:34.372492836676216] [-1.9902132481714228:11.783352220047389] [-2.9321181646763042:2.347580138277813] [0:1] [-3.318932458414916:8.5178670335679385] [-2.6855014513001483:12.103909477411509] [-4.492265576330821:6.8553579419325965] [-2.449041249173491:17.448471593509996] [-1.1083697284278082:19.223980365704005] [-2.5282280623112716:24.717837522282572] [-4.4973312246713455:7.2879064940199658] [-3.5123465145509041:2.526307647684424] [-1.079611060467943:1.9589790337283501] [-2.5787939185293776:15.451481658403202] [-5.0273243435060326:6.6121362668559263] [-2.5787939185293776:15.451481658403202] [-2.5282280623112716:24.717837522282572]
tree_sizes=3362 3356 3374 3367 3390 3380 3387 3393 3389 3382

Tree=0
num_leaves=31
num_cat=0
split_feature=0 3 3 12 31 27 12 3 8 21 12 19 19 20 29 30 0 11 17 15 0 13 1 13 11 12 9 12 25 14
split_gain=3047.68 1172.96 752.37 614.195 526.862 501.182 559.518 417.791 443.854 401.887 320.273 309.822 299.664 331.903 357.408 299.529 298.093 478.486 277.239 277.015 288.779 269.449 268.863 268.084 349.825 342.628 278.162 266.377 254.083 301.585
threshold=1.5171875000000001 2.1848930481283451 2.1176470588235317 -4.1943396226415084 1.4384685505925254 1.8517976508967298 -4.2702306079664565 1.0891544117647081 0.85800543072337521 0.64833438089252082 -0.52258433390508829 -0.020556568550837769 -0.96220369887991641 -0.18942851640008765 1.8974591034891768 0.24462277224531861 2.2463541666666669 0.79347431145992309 -2.2077423854917462 -1.6409482758620679 11.256770833333336 -0.14994658119658119 2.1313660874775322 -0.35230683269476365 0.27565804499257734 0.69316291336985192 0.40284792368125993 -4.3356394129979021 -0.53152117643962027 -1.2530568442044598
decision_type=2 2 2 2 2 2 2 2 2 2 2 2 2 2 2 2 2 2 2 2 2 2 2 2 2 2 2 2 2 2
left_child=2 3 21 9 12 22 -7 18 19 16 -8 -6 13 14 -4 -10 -2 -18 -5 -9 -21 -1 -3 26 -25 -26 -12 -14 29 -23
right_child=1 5 4 7 11 6 10 8 15 -11 23 -13 27 -15 -16 -17 17 -19 -20 20 -22 28 -24 24 25 -27 -28 -29 -30 -31
leaf_value=-3.8099588557654624 -3.4107976143896006 -3.8111968603940518 -0.10269243430006547 -1.5400906684175313 0.1261955919983544 -0.0012427482252466149 -3.6598816430084709 -1.2971417143951847 -1.2069301949758762 -3.6186539417198302 -1.5696956666833075 -2.8244921316405662 -1.5400906684175313 -3.6456482699445352 -3.1586000354129946 -3.1320927823674047 -1.4764822150007717 -3.0585216310571979 -3.6121847013580486 -3.4406419593641333 -1.5568046013723857 -3.2300108194242911 -1.4305795868695834 -0.44313933055906141 -2.712987771807712 0.19736245731803104 -3.523932976921162 -3.5775398153658688 -3.7854864484159854 -3.7050840693932283
leaf_weight=2644.8458994440734 3.1225517019629496 4.1708369161933652 0.82524580694735072 0.64681428112089534 0.6022063996642828 0.95906945131719012 2.0073546655476084 0.62451034039258857 1.58357979170978 5.8213285300880662 1.0482852142304158 0.86985368840396293 0.64681428112089534 1.4051482658833254 0.71372610330581665 1.6504916138947008 3.9031896274536848 3.7470620423555374 377.38267712295055 58.302501063793898 0.8252458069473495 13.828443251550196 0.53529457747936238 1.4051482658833272 2.9664241168648009 0.46838275529444207 2.3865216579288244 80.963304843753576 818.59923261031508 396.58637009002268
leaf_count=118582 140 187 37 29 27 43 90 28 71 261 47 39 29 63 32 74 175 168 16920 2614 37 620 24 63 133 21 107 3630 36702 17781
internal_value=-3.75681 -3.51706 -3.78549 -3.54644 -3.49298 -2.674 -2.31127 -3.56891 -3.33046 -2.94919 -2.52674 -1.61739 -3.52564 -2.53447 -1.51992 -2.18943 -2.58743 -2.25136 -3.60864 -3.39222 -3.41435 -3.79198 -3.54042 -2.25185 -1.77235 -2.31612 -2.92751 -3.56139 -3.75329 -3.68908
internal_weight=0 473.557 3959.89 457.61 86.0263 15.9473 11.2412 441.016 62.9863 16.5941 10.2821 1.47206 84.5542 2.94412 1.53897 3.23407 10.7728 7.65025 378.029 59.7523 59.1277 3873.86 4.70613 8.27476 4.83996 3.43481 3.43481 81.6101 1229.01 410.415
internal_count=198774 21232 177542 20517 3857 715 504 19773 2824 744 461 66 3791 132 69 145 483 343 16949 2679 2651 173685 211 371 217 154 154 3659 55103 18401
is_linear=0
shrinkage=1


Tree=1
num_leaves=31
num_cat=0
split_feature=0 3 19 11 11 33 19 7 12 16 13 8 9 11 3 15 14 21 18 31 8 10 0 3 10 13 12 20 12 30
split_gain=1602.62 468.777 240.667 240.373 227.99 226.731 202.604 351.127 171.901 233.896 292.359 169.002 174.905 329.066 164.831 258.389 344.373 193.757 187.253 158.272 210.695 241.004 191.349 157.107 219.081 152.265 147.478 642.212 144.915 199.432
threshold=1.4651041666666669 1.5294117647058865 2.0075332976479112 2.5324240607513993 0.18606020161246561 -0.1999082552926307 0.37411237074872322 -2.5516898608349892 0.13207547169811321 2.6354957441913958 0.77222222222222237 0.4910880086209386 1.7729227761485855 0.33693045563549162 0.77976190476190765 -1.4314176245210717 -0.59633178695464795 0.39880578252671278 -2.1925550690696798 1.5724703737465819 -0.23255153336221501 0.80477481883252533 -0.51406249999999998 -3.4640522875816968 1.2646302797840918 -0.69433333333333314 -4.2864065870628618 0.58398578345523866 1.0510717065269974 -0.39209126945760436
decision_type=2 2 2 2 2 2 2 2 2 2 2 2 2 2 2 2 2 2 2 2 2 2 2 2 2 2 2 2 2 2
left_child=1 4 8 -4 23 -5 14 -8 11 28 -11 -2 -13 -14 -6 16 17 -16 -17 -9 22 -22 -21 24 -1 -3 27 -27 -10 -30
right_child=2 25 3 5 6 -7 7 19 9 10 -12 12 13 -15 15 18 -18 -19 -20 20 21 -23 -24 -25 -26 26 -28 -29 29 -31
leaf_value=0.3031285608459357 0.15127776794021658 1.6574546631408709 0.33173096009278119 2.5892933587606297 -0.038165962488564034 0.66825110648952124 2.0851751302258581 0.059838785601572388 0.050447944272062832 2.735060920358265 -0.10268620159484865 0.31925031430819484 2.4439134534276046 -0.10269326532860219 1.3003345289937416 1.6620259068599417 0.2215665649972284 3.9099360706573139 0.060001149489461919 0.5576660990239215 0.074030823087568171 2.4820706270534076 3.4701337700928896 -0.055168760716707912 2.653628704117807 0.24466192389518437 0.07846147029328332 3.185805828909785 0.7747472025850034 0.1419024610744701
leaf_weight=4.4397055804729453 268.82927616126835 0.62506509572267432 24.71544825471938 0.9285235516726974 740.34144073352218 1.8159325104206789 0.86856691539287467 253.42258949205279 293.98530214652419 0.74002224206924327 0.71269994974136353 41.446904569864273 1.0983022898435586 0.94313259795308102 0.71277836337685607 0.73670469224452872 2.161295883357524 0.47353745624423027 75.771057605743408 0.4545089453458786 3.9622869342565528 0.46432619914412487 0.44786775112152089 2494.3180591873825 0.43542785570025433 12.155826978385445 259.41578655317426 0.79070622101426202 6.4843199718743589 21.460136855021119
leaf_count=203 8679 28 690 33 33487 71 39 11420 10453 29 28 1038 38 37 30 31 98 21 3425 20 166 21 20 116761 20 366 10493 35 235 759
internal_value=0 -0.0278356 0.140471 0.430322 -0.0374701 1.31819 0.000927206 0.0779179 0.12795 0.0768462 1.34287 0.180864 0.363758 1.26739 -0.023443 0.113054 0.972999 2.342 0.0754273 0.07118 0.610519 0.32662 2.00318 -0.0540603 0.513066 0.0984781 0.0949002 0.424292 0.0711332 0.28875
internal_weight=0 3852 663.16 27.4599 3579.01 2.74446 1079.82 259.62 635.7 323.382 1.45272 312.318 43.4883 2.04143 820.197 79.8554 3.34761 1.18632 76.5078 258.752 5.32899 4.42661 0.902377 2499.19 4.87513 272.987 272.362 12.9465 321.93 27.9445
internal_count=198774 176684 22090 794 165762 104 48778 11686 21296 11504 57 9792 1113 75 37092 3605 149 51 3456 11647 227 187 40 116984 223 10922 10894 401 11447 994
is_linear=0
shrinkage=0.1


Tree=2
num_leaves=31
num_cat=0
split_feature=0 3 13 26 32 19 19 20 15 15 11 30 21 20 9 3 16 18 8 0 15 21 9 11 12 11 10 9 11 3
split_gain=1137.93 342.552 191.145 185.14 149.584 149.559 168.987 173.752 136.931 133.501 131.866 151.492 152.644 263.825 157.799 144.07 128.037 249.766 233.855 121.9 141.039 146.576 143.604 138.313 135.738 147.831 286.999 130.081 146.617 243.825
threshold=1.4130208333333336 1.4192647058823578 -0.17375757575757572 -0.45848888662835069 1.3367471030927345 0.12806777127195726 0.13200413880929643 1.0235964257804171 -2.4319559228650123 2.2059309309309323 1.3804706235011994 1.2029295175480998 0.14582023884349468 0.30366402252669905 0.13341139734582474 -1.5606401384083048 1.6940418679549116 -0.21254492855264293 -0.091428225862188114 3.7046875000000004 -0.43333333333333257 -1.1112507856693898 0.012879053974949413 0.04341950168678612 -0.60147937186029032 -0.73578280232956483 0.13280067046899077 -0.40800308800822782 1.0113908872901682 -0.53002450980392002
decision_type=2 2 2 2 2 2 2 2 2 2 2 2 2 2 2 2 2 2 2 2 2 2 2 2 2 2 2 2 2 2
left_child=1 2 -1 5 19 8 7 -7 -4 -8 15 12 13 14 -12 -11 -6 -18 -19 24 21 23 -22 -21 25 26 -2 28 -27 -30
right_child=4 -3 3 -5 16 6 9 -9 -10 10 11 -13 -14 -15 -16 -17 17 18 -20 20 22 -23 -24 -25 -26 27 -28 -29 29 -31
leaf_value=-0.054890950648495342 1.8606174014622543 0.065002908714704488 0.68014441100575196 -0.037003780077695482 0.17743386378687809 0.47348359476686525 0.079038768761247657 2.839900023414077 -0.0065128676833292034 1.3710889001827735 0.73561228968464842 2.3602879669570562 0.19633703378583633 -0.10250197021815513 3.0348921248792617 0.03117238307622823 -0.006213527741282943 2.1433875109211011 0.37068396485322358 0.47360198228657835 0.21246219980818679 0.22157618310675772 0.042821110817259658 1.6300699584111236 0.017514713511346786 0.29796201944413947 -0.11245269103931305 0.057209788235184925 2.5587002194919579 0.030594043992478004
leaf_weight=2171.6373255383223 1.4766656756401055 363.79559733904898 2.9324222821742287 734.75392329320312 140.46697179041803 1.0420094057917584 160.86942274495959 0.44184167124330986 301.49655571393669 0.88189099915325719 0.4772536996752017 0.5278510246425866 3.630574794486165 0.84829837828874577 0.79684112034738064 8.9080665186047554 2.907332981005311 1.5573176890611651 1.4252262543886889 4.0928594395518294 73.893404858186841 51.319502346217632 153.68453259393573 1.3838425874710081 293.3639861214906 12.406596049666403 1.4722110033035276 40.184546625241637 0.78892488032579422 0.73870005272328743
leaf_count=107221 50 13718 116 34107 3665 47 6601 20 13269 33 20 22 116 36 34 352 73 45 25 103 2049 1494 4513 40 9646 242 34 1037 27 19
internal_value=0 -0.0272105 -0.0371086 -0.00539316 0.105451 0.0427085 0.115405 1.17812 0.000101381 0.106493 0.381312 0.738939 0.590176 1.26388 2.17362 0.151874 0.196586 0.653355 1.29629 0.0844397 0.133085 0.274056 0.0979027 0.765816 0.0449646 0.186074 0.875573 0.148504 0.411786 1.33621
internal_weight=0 3753.04 3389.24 1217.61 781.163 482.853 178.424 1.48385 304.429 176.94 16.0708 6.28082 5.75297 2.12239 1.27409 9.78996 146.357 5.88988 2.98254 634.806 284.374 56.7962 227.578 5.4767 350.432 57.0676 2.94888 54.1188 13.9342 1.52762
internal_count=198774 175712 161994 54773 23062 20666 7281 67 13385 7214 613 228 206 90 54 385 3808 143 70 19254 8199 1637 6562 143 11055 1409 84 1325 288 46
is_linear=0
shrinkage=0.1


Tree=3
num_leaves=31
num_cat=0
split_feature=0 32 3 7 13 3 19 11 0 29 14 31 24 19 6 0 3 12 11 26 1 19 10 3 14 20 9 20 19 21
split_gain=827.662 293.62 176.889 171.195 161.75 130.284 141.45 195.022 152.784 243.29 115.762 177.305 126.523 109.082 134.036 107.116 108.612 96.4148 221.549 93.9836 114.13 84.9124 156.262 84.4366 83.8328 128.093 81.1498 196.972 80.8617 185.857
threshold=1.4130208333333336 1.7046267851554138 1.8248910675381305 3.8449304174950298 -0.15404040404040398 -1.7159926470588245 -0.14040114613180507 5.6422089601046439 -0.56614583333333324 1.4964169220124544 1.9877987084486508 0.71209358857490135 -0.51173786668914845 -1.4433301496338744 -0.2285714285714289 15.892187500000002 1.0147058823529431 0.69316291336985192 1.1530670200681563 -0.40128490412491752 0.30137807070101913 0.57593123209169061 4.0293842034805891 1.236213235294122 -1.0935286721909114 -1.2995996997748309 2.1628489829224207 0.47153066324798082 -0.90286256107858176 -1.2372721558768067
decision_type=2 2 2 2 2 2 2 2 2 2 2 2 2 2 2 2 2 2 2 2 2 2 2 2 2 2 2 2 2 2
left_child=1 2 3 4 -1 6 -6 8 9 10 17 -12 -13 14 -7 16 21 -8 -19 20 -15 -2 -23 -3 25 -22 -4 -28 29 -26
right_child=15 23 26 -5 5 13 7 -9 -10 -11 11 12 -14 19 -16 -17 -18 18 -20 -21 24 22 -24 -25 28 -27 27 -29 -30 -31
leaf_value=-0.055139359809710936 0.040134570730319723 0.043006615531831806 0.054726640986580033 1.9252952638024656 -0.028032587262953265 0.13530077142052124 0.18285390228258253 2.0593686493950143 0.025722457864681515 2.3544599720771662 0.10472424516514411 0.86444910282762233 3.0545645044419771 -0.016583908108217256 2.257821690954398 1.1330949586940726 0.1393489130276101 0.017211147089910811 2.6166842351379205 -0.04352207681991959 1.4002262534033019 0.119836767548207 1.4339856702553768 0.17294411808735827 2.1352631683380223 0.24391491283616495 0.19456676988199431 1.9005078299423077 0.051915977570823946 0.24371535293243227
leaf_weight=2106.1897273119539 484.07955908216536 178.27142704278231 161.06321053206921 0.4438922218978395 29.041480867192149 0.82262135855853558 11.935323277488346 0.6012801006436338 16.240010531619191 0.65116870030760843 0.96202320791781071 0.51709852553904068 0.53843403793871369 329.5788301024586 0.46609361842274555 0.97050854936242004 238.45953784324229 0.80838114023208507 0.5515831932425499 610.96922788769007 1.0593224335461844 140.05041610822082 0.9107056874781837 69.510329173877835 0.58097806386649598 10.018604557961224 4.4381258990615597 0.79861832223832596 127.13577113673091 4.9048743452876797
leaf_count=108137 14645 8638 5169 21 1293 31 423 25 642 27 36 22 21 13572 22 31 4592 25 22 29286 23 3764 30 2461 26 325 100 29 5128 208
internal_value=0 -0.0256584 -0.0332735 -0.0384146 -0.0386825 -0.00847344 0.132701 0.274993 0.241677 0.461365 0.380862 1.08668 1.98164 -0.0165166 0.90296 0.0831101 0.08193 0.273755 1.07152 -0.0176095 0.0158418 0.060024 0.128327 0.079458 0.0902111 0.354487 0.0673226 0.454728 0.068136 0.444039
internal_weight=0 3668.1 3420.32 3254.02 3253.57 1147.38 61.8468 32.8053 32.204 15.964 15.3128 2.01756 1.05553 1085.54 1.28871 864.471 863.5 13.2953 1.35996 1084.25 473.278 625.041 140.961 247.782 143.7 11.0779 166.3 5.23674 132.622 5.48585
internal_count=198774 175712 164613 159315 159294 51157 2536 1243 1218 576 549 79 43 48621 53 23062 23031 470 47 48568 19282 18439 3794 11099 5710 348 5298 129 5362 234
is_linear=0
shrinkage=0.1


Tree=4
num_leaves=31
num_cat=0
split_feature=0 1 19 14 6 32 18 5 11 3 15 15 10 19 24 8 10 18 11 16 9 13 24 20 12 17 12 19 6 3
split_gain=648.029 273.872 152.599 128.742 112.157 127.398 110.646 155.073 104.023 94.2983 113.079 89.2723 111.91 182.439 117.91 88.9619 255.373 129.657 110.466 87.183 167.661 84.794 88.4951 83.9965 83.7453 87.9824 82.9324 94.577 84.4561 81.9141
threshold=1.6213541666666669 1.2599898603493573 0.37411237074872322 -1.0935286721909114 -0.19184202178280654 -1.6739308284878132 2.1701685522973913 -0.36935550082101815 0.76551838583407361 1.0891544117647081 -2.7597796143250677 -1.099999999999999 0.4888636306231216 2.1412614223685371 0.73895334181483419 0.77950225475197732 -0.70115503335656681 -1.7093705727585509 -0.16613611765454897 -2.0702160493827155 -0.33333333333333359 2.1077954612437373 0.19787182791554783 -0.68170143835056807 -1.7393081761006288 0.93223348799908323 0.44654088050314467 0.27307148438953599 -0.48750430837208536 -1.4840686274509782
decision_type=2 2 2 2 2 2 2 2 2 2 2 2 2 2 2 2 2 2 2 2 2 2 2 2 2 2 2 2 2 2
left_child=1 2 9 15 5 -3 11 -8 -5 29 -11 12 24 14 -14 17 18 -4 -17 20 -10 -19 -23 -16 25 -7 -2 -28 -29 -1
right_child=26 4 3 8 -6 6 7 -9 19 10 -12 -13 13 -15 23 16 -18 21 -20 -21 -22 22 -24 -25 -26 -27 27 28 -30 -31
leaf_value=0.018494046862494787 0.093797561138321703 1.267901533556695 1.2878145259968967 -0.023515740042675232 0.0097277903311588625 0.29529781816015616 0.35233319593155948 2.2249808814755112 -0.10331892247152313 1.718585759208979 0.0025062100773337627 0.062684186693279062 0.18267657737275361 2.1203306490430438 2.1582866882977387 3.0423191094006308 0.20844223511956739 0.039490384684690683 0.93100010834298674 0.060830430004351316 1.8995215736903555 0.30273758850624077 1.5295386328163438 0.59632578598501707 0.079049033523491227 1.5155132915371039 -0.03018992894075645 0.27760990775741573 0.043580479658819463 -0.058407126267901066
leaf_weight=148.86359704658389 611.22077964618802 0.94703969731926818 0.9345823135226955 579.09125786274672 279.30744286254048 1.9769808202982013 2.1217929478734736 0.55863207578658958 0.94549891166388988 0.38442962430417438 327.63141269423068 145.10547171160579 4.5542946178466073 0.71628239192068566 0.57474542036652565 0.50880943052470684 3.7250538803637019 30.617301916703582 0.48309843987226475 153.33107579313219 0.74911475926637539 2.9496928472071882 0.73438300564885128 0.85862711630761601 20.661079924553633 0.84283059835433949 132.64797208830714 21.487185835838318 54.613070605322719 1992.2723789438605
leaf_count=7171 14149 35 38 28410 12463 56 47 28 33 18 12979 6150 137 21 18 24 79 1204 16 5753 28 87 19 39 832 16 3733 525 1370 103296
internal_value=0 -0.0230419 -0.0332664 0.0054747 0.0493244 0.111139 0.104983 0.742615 -0.00403926 -0.0454116 0.00451743 0.0952328 0.251701 0.612058 0.431629 0.180289 0.588129 0.125693 2.01402 0.0687142 0.782049 0.0940294 0.547288 1.22263 0.148817 0.660015 0.075212 0.0207929 0.10966 -0.0530605
internal_weight=0 3701.45 3243.22 774.07 458.225 178.918 177.971 2.68043 734.117 2469.15 328.016 175.29 30.1848 6.70395 5.98767 39.9529 4.71696 35.236 0.991908 155.026 1.69461 34.3014 3.68408 1.43337 23.4809 2.81981 819.969 208.748 76.1003 2141.14
internal_count=198774 178997 159155 35691 19842 7379 7344 75 34224 123464 12997 7269 1119 215 194 1467 119 1348 40 5814 61 1310 106 57 904 72 19777 5628 1895 110467
is_linear=0
shrinkage=0.1


Tree=5
num_leaves=31
num_cat=0
split_feature=0 3 19 8 29 31 13 22 16 32 8 27 32 13 18 15 23 27 9 21 21 26 18 3 20 20 17 17 20 18
split_gain=522.6 210.481 138.851 94.9073 88.8226 189.092 84.9104 131.94 176.993 163.403 121.498 181.323 94.5821 84.5417 258.869 84.4121 146.213 81.9271 78.3299 125.788 142.052 83.2618 144.07 82.2319 81.2364 77.4399 99.6912 74.6875 118.079 109.12
threshold=1.3609375000000001 1.3455882352941217 0.43510443918441921 0.79251070725778472 2.2919837896609674 -1.0000000180025095e-35 1.0403395061728395 1.0000000180025095e-35 -0.22141706924315671 0.74206266538637111 -0.39150943396226406 0.3886614989443517 2.1293218468431374 -0.69433333333333314 0.3594262295081968 0.56666666666666732 -0.048830796187519336 3.2631803596063995 0.012879053974949413 1.3837209302325584 1.5311125078566941 0.46201108794059298 2.2327293643945931 1.4192647058823578 -1.6143940534586461 -1.1260886946535265 2.7473512990724056 0.97014807813484583 -0.27997158859856958 1.1316311233618646
decision_type=2 2 2 2 2 2 2 2 2 2 2 2 2 2 2 2 2 2 2 2 2 2 2 2 2 2 2 2 2 2
left_child=1 2 25 13 -5 -6 12 8 9 -8 11 -9 -3 14 -4 -10 -17 -2 19 21 -21 22 24 -20 -19 26 -1 -14 -29 -30
right_child=17 6 3 4 5 -7 7 10 15 -11 -12 -13 27 -15 -16 16 -18 18 23 20 -22 -23 -24 -25 -26 -27 -28 28 29 -31
leaf_value=0.010932184120805261 0.031577395099115391 0.011709860544118749 -0.1020116697281932 0.1032613007485973 -0.10227787004177594 2.0161830070238325 0.62747756634454843 0.01965144790761307 0.074203944247820758 2.7719551599367502 0.0083936549823305142 2.3408717114954287 0.10798886910965717 -0.0070534427391756131 2.9410694634407242 2.0209176286015231 0.2540662599482672 0.53052066428235423 0.035602537285405814 1.3555701125105772 0.25862948289936194 -0.0072719105634885955 1.1868175629470799 0.16236462161303483 0.14003340259706196 -0.050015489329216324 1.1214209593366982 0.044487405805779319 1.4829357276265069 0.37895682085381588
leaf_weight=195.93984802253544 528.83760523609817 385.35304501280189 0.96035464294254669 61.913485657423735 0.95312361791729927 0.75517615489661583 0.821543203666806 0.81583827361464745 4.2609119024127748 0.62611407414078712 19.125130116939545 0.57280747592449188 42.195801980793476 621.63520614802837 0.39433014579117298 0.70629416219890151 1.3903643768280742 5.6161556988954535 255.11661702394485 1.7794626485556353 3.5075208880007267 33.370032981038094 1.3839690089225758 64.017051024362445 103.71537951566279 2162.1052284594625 0.81175307929515739 3.5289156809449196 1.576043609529733 2.0729343015700579
leaf_count=9833 13569 14081 50 2388 45 32 31 30 138 23 587 20 1234 29364 20 27 41 97 6436 42 72 842 21 913 2136 116472 26 85 52 67
internal_value=0 -0.0234791 -0.0330297 0.00654733 0.122888 0.834215 0.0393354 0.207114 0.557042 1.55497 0.0739713 0.97714 0.0284059 -0.00533377 0.783787 0.329809 0.849259 0.058554 0.0890046 0.148771 0.627831 0.131193 0.172926 0.0610305 0.160092 -0.0445497 0.0155138 0.158716 0.456919 0.85578
internal_weight=0 3508.51 3045.47 686.612 63.6218 1.7083 463.046 28.319 7.80523 1.44766 20.5138 1.38865 434.727 622.99 1.35468 6.35757 2.09666 997.344 468.506 149.373 5.28698 144.086 110.716 319.134 109.332 2358.86 196.752 49.3737 7.17789 3.64898
internal_count=198774 174646 158230 31899 2465 77 16416 897 260 54 637 50 15519 29434 70 206 68 24128 10559 3210 114 3096 2254 7349 2233 126331 9859 1438 204 119
is_linear=0
shrinkage=0.1


Tree=6
num_leaves=31
num_cat=0
split_feature=0 0 0 20 12 19 11 12 10 30 12 19 8 3 15 9 12 12 20 0 14 10 13 19 20 21 16 15 27 23
split_gain=415.472 174.305 220.623 188.9 145.308 149.482 143.203 121.781 228.735 103.172 136.259 163.722 103.026 90.3559 96.1952 88.0352 124.211 86.2425 90.1646 140.925 210.115 202.93 83.7667 80.649 80.3327 135.691 129.948 179.073 260.655 161.341
threshold=1.3088541666666669 -1.0348958333333333 -0.56614583333333324 -1.3873403774058164 -0.30817610062893058 -0.69577573578892127 0.35809644966953275 1.9587093245829912 -0.58065338276181622 -0.29785316040754523 0.6981132075471701 -0.69577573578892127 0.88549121665582309 2.4128151260504196 -1.8448894451397575 -0.18274400330851776 -0.1823899371069185 -1.7393081761006288 -0.39332011263349465 0.47552083333333339 -0.43342891951822177 -0.11268077677436025 -0.25214364488558044 1.7990868571097798 0.27724038464954198 -1.4846008799497168 0.58595761536938007 -0.65555555555555467 -0.73946066662093457 0.92392208051836544
decision_type=2 2 2 2 2 2 2 2 2 2 2 2 2 2 2 2 2 2 2 2 2 2 2 2 2 2 2 2 2 2
left_child=1 -1 3 9 5 -4 7 13 -9 10 15 -12 24 -5 -15 16 -3 18 19 -14 -21 -22 -18 -6 -7 26 27 -26 -29 -30
right_child=-2 2 4 6 23 12 -8 8 -10 -11 11 -13 17 14 -16 -17 22 -19 -20 20 21 -23 -24 -25 25 -27 -28 28 29 -31
leaf_value=-0.10368702081092183 0.048949444687971563 0.21588662237181735 0.19059945824513996 -0.015227408458415423 -0.048125184126761644 -0.039421970977175085 0.0859482348525933 3.0015594460571382 -0.10201082004652845 0.12067283025655025 0.60564206501695006 3.2807593087048526 0.36435595953776972 0.7770753479847432 0.11551413270012273 0.065554812207666999 2.151498400387811 0.0021559370619893309 -0.0050657500264318167 0.24162803289235671 1.2686885584552654 4.2729973427377352 0.85369982551067525 0.068268085454162949 0.16490967116277017 0.041205068177165016 -0.10206054815478689 0.055813894144442038 3.6098166135724337 1.0907067136819621
leaf_weight=245.2419063244015 1069.555695079267 2.6975070666521788 46.331772420555353 606.09983534924686 1819.5431080218405 262.06664549559355 231.5065458342433 0.38666315376758575 0.61545283906161674 12.787459501996635 0.5653406884521246 0.38429929874837476 4.6442558504641056 2.453911334276202 21.069755559787154 3.850502150133253 0.66509293019771609 8.5250644348561746 3.0721309408545512 0.82124838978052139 0.58361527696251869 0.36572165228426434 1.971871955320238 61.544627344235778 1.4987218696624038 77.362647328525782 1.7933246809989212 0.63197943754494179 0.64650047570466929 0.41903538629412651
leaf_count=12684 25297 65 1981 32640 95674 12621 9925 21 33 450 31 20 149 37 488 152 23 389 147 20 30 20 48 2277 82 3296 94 31 30 19
internal_value=0 -0.02246 -0.0161857 0.0262155 -0.0325743 0.0214651 0.0186825 -0.00601116 1.09549 0.309544 0.547855 1.68821 -0.000156413 -0.00776432 0.184526 0.429953 0.692981 0.232987 0.440413 0.653758 1.41286 2.42607 1.18103 -0.0443171 -0.0123491 0.073804 0.579248 0.961512 1.66483 2.61914
internal_weight=0 3420.15 3174.9 885.054 2289.85 408.763 862.132 630.626 1.00212 22.9221 10.1346 0.94964 362.431 629.624 23.5237 9.18497 5.33447 18.012 9.48697 6.41484 1.77059 0.949337 2.63696 1881.09 344.419 82.3522 4.98956 3.19624 1.69752 1.06554
internal_count=198774 173477 160793 43933 116860 18909 43144 33219 54 789 339 51 16928 33165 525 288 136 755 366 219 70 50 71 97951 16173 3552 256 162 80 49
is_linear=0
shrinkage=0.1


Tree=7
num_leaves=31
num_cat=0
split_feature=0 1 0 27 32 7 2 19 20 2 12 31 27 13 20 8 3 14 4 32 8 18 28 13 17 10 14 12 19 19
split_gain=343.035 166.248 111.269 103.789 96.5339 94.1973 97.9558 75.0436 110.7 112.674 102.549 154.138 127.386 131.8 93.6185 139.429 74.9112 70.2618 64.2618 62.7175 81.1512 64.0411 62.5928 87.5852 62.499 126.784 133.438 90.5646 62.2926 60.454
threshold=1.3609375000000001 0.39171826110112545 -1.0348958333333333 -0.48639852437899678 1.8392083546096956 -2.7509488523405019 0.81452784503631759 0.81246418338108872 0.99751963293737289 0.73050847457626922 0.34697902055713897 0.63309024612579778 -0.71673945685561624 -0.29162698412698407 -1.022717059107203 -0.36352201257861633 -1.4840686274509782 -0.39893804575529401 -0.073618307426597807 1.5547571200316266 0.89941748474088523 1.1865513054037649 -0.18059320843852469 0.080935127674258089 -0.39130434782608664 -0.18034770792296059 -0.70634795275452344 -0.10070689744789245 -1.4433301496338744 0.37411237074872322
decision_type=2 2 2 2 2 2 2 2 2 2 2 2 2 2 2 2 2 2 2 2 2 2 2 2 2 2 2 2 2 2
left_child=1 16 -3 4 5 6 -4 14 9 10 11 12 -9 -14 15 -6 -1 22 -13 20 -2 -22 23 -7 25 -25 27 -27 -18 -30
right_child=19 2 3 -5 7 17 -8 8 -10 -11 -12 18 13 -15 -16 -17 28 -19 -20 -21 21 -23 -24 24 -26 26 -28 -29 29 -31
leaf_value=0.026511275344167796 0.024487575834146222 -0.10495610534863811 1.4303756209221836 -0.007133391444897972 1.6121174049009319 0.081196805680906314 -0.10278192598882226 0.1962559718187962 -0.022325498872509314 -0.064623443819291193 0.14731771595119073 2.3173328336613932 2.114199018598161 0.21774372671483766 0.056500586224489238 0.27703514847833038 0.35090485380952396 -0.0049454198289363913 1.0724318179744985 0.097106960649457078 0.18853892779547249 -0.10818336445994202 0.015919366672799039 0.050882421346729462 0.17999153716315033 0.9173964327891575 1.8421993578015616 -0.10312716667139199 -0.054302872508063663 -0.013341263902702547
leaf_weight=164.47493692673743 849.99274391494691 81.965165301226079 0.97406707610934862 734.20899710338563 0.87066813930869091 44.22574005741626 0.72833143919706345 2.6675555799156405 5.3146413248032323 2.4015025105327359 2.289610393345356 0.90755464509129524 0.90172316320240498 0.6173633821308615 53.126767257228494 7.701358372345565 3.9920886345207682 221.22874523792416 0.76347421295940854 179.0705365370959 50.483442960307002 8.498186716809867 59.817549557425082 3.187879104167223 10.892737850546835 2.6996776759624481 1.0793733019381777 1.2827776335179808 1507.4024607473984 473.47860029153526
leaf_count=7483 20027 4266 25 35038 21 2029 35 90 140 72 58 25 32 19 1985 165 114 10494 25 3212 688 201 2871 87 298 37 39 49 86267 22882
internal_value=0 -0.0215213 0.00763932 0.0156098 0.0550223 0.0324261 0.77445 0.155856 0.349843 0.537347 0.714785 0.936593 0.612513 1.34347 0.10598 0.412641 -0.0383427 0.0287583 1.74855 0.0430148 0.0323584 0.145787 0.0892868 0.158543 0.337241 0.544869 0.855976 0.588678 -0.0437168 -0.0445121
internal_weight=0 3389.2 1239.85 1157.89 423.679 346.117 1.7024 77.5622 15.8634 10.5488 8.14728 5.85767 4.18664 1.51909 61.6988 8.57203 2149.35 344.414 1.67103 1088.04 908.974 58.9816 123.186 63.3682 19.1424 8.24971 5.06183 3.98246 1984.87 1980.88
internal_count=198774 174646 57900 53634 18596 15964 60 2632 461 321 249 191 141 51 2171 186 116746 15904 50 24128 20916 889 5410 2539 510 212 125 86 109263 109149
is_linear=0
shrinkage=0.1


Tree=8
num_leaves=31
num_cat=0
split_feature=0 0 0 11 12 20 15 10 29 23 26 1 3 3 20 31 16 3 13 14 0 8 9 6 17 18 12 8 14 13
split_gain=279.462 153.838 162.08 120.527 114.85 86.7253 82.9178 185.381 89.704 157.321 88.8043 81.6895 70.8158 59.0895 56.4877 75.7222 235.454 106.158 65.4879 58.0936 56.4177 112.272 52.7796 89.0655 230.16 230.89 51.5898 68.8781 57.3271 65.6356
threshold=1.3088541666666669 -1.0348958333333333 -0.51406249999999998 0.2495689722731618 -4.1943396226415084 4.5248699952074043 -0.66651917404129712 -1.2436164010882236 -0.40024757215577739 -0.26653731044904244 -1.4146826204160521 0.45184242061114471 1.9123093681917258 1.0147058823529431 -1.0671232324499127 1.5376785171680343 1.2592592592592597 0.64600840336134302 -0.43884408602150532 -0.95648548073670214 -0.72239583333333324 0.15435986840255317 1.5322580645161346 -0.63599354013861809 -1.1939993732499012 -1.2805928133796984 -0.1194968553459119 0.87204252770290502 0.43522995738667741 0.3612847222222223
decision_type=2 2 2 2 2 2 2 2 2 2 2 2 2 2 2 2 2 2 2 2 2 2 2 2 2 2 2 2 2 2
left_child=1 -1 3 12 6 14 7 -4 9 -9 -8 -6 22 26 18 -16 17 -17 -5 20 21 -20 -3 24 25 -24 27 -2 -29 -30
right_child=13 2 4 5 11 -7 10 8 -10 -11 -12 -13 -14 -15 15 16 -18 -19 19 -21 -22 -23 23 -25 -26 -27 -28 28 29 -31
leaf_value=-0.10328050975128014 0.043464408152314504 -0.022981561019643978 1.7840469012418465 0.92699325242053521 -0.049465951153790461 0.94817888886290447 1.0689668395755454 0.34015467523280213 0.11025541988047555 2.8740033885311838 0.036379694647955561 -0.0073847344709727205 0.095101511306921682 0.07332378957832536 0.042278637155205794 0.0083999886140115818 1.955888323479011 1.1408201031932763 0.36315377612808775 0.11021913222037348 0.053982818967827417 1.7888983341639553 0.53682323861549708 0.020536293697987627 0.18232332487840314 3.5238925113999837 0.0061828048886834117 0.11635091220242576 0.63599331502314227 -0.012166737708593552
leaf_weight=210.07182999886572 228.55894332379103 584.14853614848107 0.84809182770550151 1.1508550504222501 1320.4693030146882 1.1171405501663674 0.8469109907746305 0.90485689975321293 7.7158262040466061 0.33602831698953994 50.260565023869276 708.99441286269575 63.303671026602387 319.64860752411187 277.9158674236387 5.8652933007106176 0.82587722130119789 0.96385873947292555 1.8287414032965901 29.731663664802909 1.6996726039797057 0.79130258969962586 0.62565688323229551 26.530978661961854 6.20820603147149 0.44128515012562253 575.87272523343563 16.409955892711881 5.4025545045733443 2.1979525536298752
leaf_count=12684 4733 32743 39 39 75736 18 18 52 269 19 1871 34067 1443 5022 11435 199 37 33 44 911 44 22 32 1390 307 25 15280 180 65 17
internal_value=0 -0.0204708 -0.0148475 0.0181946 -0.030704 0.0686215 0.104594 0.37097 0.237168 1.02631 0.0534909 -0.0347649 -0.0056318 0.0368012 0.0655583 0.0508248 0.361094 0.168228 0.185081 0.160006 0.502678 0.793755 -0.015951 0.105533 0.415498 1.77227 0.0227092 0.0603903 0.22151 0.448555
internal_weight=0 3303.6 3093.52 1003.15 2090.38 321.89 60.9123 9.8048 8.95671 1.24089 51.1075 2029.46 681.258 1148.09 320.773 285.571 7.65503 6.82915 35.2022 34.0514 4.31972 2.62004 617.955 33.8061 7.27515 1.06694 828.442 252.569 24.0105 7.60051
internal_count=198774 173477 160793 48722 112071 12782 2268 379 340 71 1889 109803 35940 25297 12764 11704 269 232 1060 1021 110 66 34497 1754 364 57 20275 4995 262 82
is_linear=0
shrinkage=0.1


Tree=9
num_leaves=31
num_cat=0
split_feature=0 0 29 13 26 15 0 12 3 20 27 6 29 31 30 10 3 18 20 31 11 9 9 13 10 3 29 11 17 10
split_gain=231.87 146.146 149.866 114.612 88.265 62.4741 81.0518 80.3334 62.4621 85.7639 74.6221 60.0863 53.1806 67.8124 127.459 152.003 58.167 53.0628 103.434 164.637 124.611 113.992 109.165 162.349 135.492 135.513 108.942 81.6286 75.1327 67.2207
threshold=1.6734375000000001 -1.0348958333333333 1.0772701579025405 -0.18394624381466487 -0.10982910330095132 -1.4314176245210717 0.9442708333333335 -0.11974842767295589 1.5294117647058865 1.7031493343190787 -0.044798359743595757 -0.19184202178280654 -0.32111792033211434 0.22774232756001214 1.3029875277965777 0.80509002301340182 0.6843487394958 -0.12598004276550268 1.4596425260121564 0.89608021877848698 -0.87261705786885646 1.0769556162957201 0.33361391694725451 1.980087614496217 -0.24749616757785889 0.24264705882353341 -0.029738775081545956 0.25378644452858767 0.28922495274102039 0.56389745026618143
decision_type=2 2 2 2 2 2 2 2 2 2 2 2 2 2 2 2 2 2 2 2 2 2 2 2 2 2 2 2 2 2
left_child=1 -1 3 8 5 6 12 -8 -3 -10 -11 -4 -5 14 15 16 -14 -2 22 20 -20 28 23 26 25 -25 -19 29 -21 -28
right_child=17 2 11 4 -6 -7 7 -9 9 10 -12 -13 13 -15 -16 -17 -18 18 19 21 -22 -23 -24 24 -26 -27 27 -29 -30 -31
leaf_value=-0.10306305316945866 0.01911080665434909 -0.046774578933360983 0.067497820401656139 -0.073267194033436886 -0.031847760005938724 0.019236307654311228 1.4812205827707823 0.2823570429758418 0.0044565305957105653 0.068611278121872329 0.74092786364083185 0.0045677346183818201 -0.10302454703972747 0.050184360655993465 1.6836614161890102 1.5114895828627324 0.4620913648008787 -0.0066068100984647471 1.0495609504226697 -0.039495704729144862 0.10949031586581706 1.5157471147115089 -0.0057832337235008569 0.43615045346607301 0.24506419650847477 2.098727862867348 0.40973143945800639 0.065616387044824101 1.0010137295462049 0.1580157753623401
leaf_weight=190.46161214169115 611.83324491418898 1434.8929425822571 263.34759921673685 9.9896068554371613 439.84598087146878 576.21880957577378 0.87783560343086753 1.5385297536849964 146.31001758761704 3.6691961940377951 3.0012708455324164 357.96380795259029 4.0534622818231583 11.861750088632105 0.72697333991527635 0.92419883608818043 3.3076457176357508 65.07507000118494 1.4717174191027869 1.5356258954852813 33.656118169426918 1.4796006232500074 173.52513733133674 0.92455232143402089 2.9312700480222693 1.0436520315706728 17.848010543733835 42.344824472442269 1.2661483660340307 26.158028222620487
leaf_count=12684 11852 88439 9343 445 22944 24550 16 44 4819 103 57 15551 154 366 19 33 54 1347 34 37 622 29 3614 22 33 23 280 703 30 527
internal_value=0 -0.0179189 -0.0129422 -0.0233515 0.00229284 0.0269305 0.160149 0.717889 -0.0402986 0.0204438 0.371109 0.0312411 0.116483 0.207291 0.414071 0.302674 0.150905 0.037178 0.0671137 0.220232 0.148876 0.805695 0.0488198 0.109431 0.675978 1.31774 0.0910996 0.164732 0.43072 0.260107
internal_weight=0 3448.99 3258.53 2637.22 1049.34 609.499 33.28 2.41637 1587.87 152.98 6.67047 621.311 30.8636 20.874 9.01228 8.28531 7.36111 981.093 369.26 39.4092 35.1278 4.28137 329.851 156.325 4.89947 1.9682 151.426 86.3509 2.80177 44.006
internal_count=198774 179621 166937 142043 48625 25681 1131 60 93418 4979 160 24894 1071 626 260 241 208 19153 7301 752 656 96 6549 2935 78 45 2857 1510 67 807
is_linear=0
shrinkage=0.1


end of trees

feature_importances:
ICULOS=25
Temp=25
Calcium=22
WBC=20
Platelets=19
BUN=17
Creatinine=16
PaCO2=13
FiO2=12
pH=12
Magnesium=12
Glucose=10
Hgb=10
Age=8
multiplyAgeSex=8
Hct=7
multiplyAgeICULOS=7
multiplyHRO2Sat=7
multiplyRespHR=7
Potassium=6
HR=5
DBP=5
multiplyMAPSBP=5
multiplyAgeO2=5
Resp=3
multiplyHRSBP=3
multiplyHRDBP=3
O2Sat=2
SBP=1
MAP=1
Sex=1
multiplyO2SatSBP=1
multiplySBPDBP=1
addHRSBP=1

parameters:
[boosting: gbdt]
[objective: binary]
[metric: binary_logloss]
[tree_learner: serial]
[device_type: cpu]
[data: ]
[valid: ]
[num_iterations: 10]
[learning_rate: 0.1]
[num_leaves: 31]
[num_threads: 0]
[deterministic: 0]
[force_col_wise: 0]
[force_row_wise: 0]
[histogram_pool_size: -1]
[max_depth: -1]
[min_data_in_leaf: 20]
[min_sum_hessian_in_leaf: 0.001]
[bagging_fraction: 1]
[pos_bagging_fraction: 1]
[neg_bagging_fraction: 1]
[bagging_freq: 0]
[bagging_seed: 3]
[feature_fraction: 1]
[feature_fraction_bynode: 1]
[feature_fraction_seed: 2]
[extra_trees: 0]
[extra_seed: 6]
[early_stopping_round: 0]
[first_metric_only: 0]
[max_delta_step: 0]
[lambda_l1: 0]
[lambda_l2: 0]
[linear_lambda: 0]
[min_gain_to_split: 0]
[drop_rate: 0.1]
[max_drop: 50]
[skip_drop: 0.5]
[xgboost_dart_mode: 0]
[uniform_drop: 0]
[drop_seed: 4]
[top_rate: 0.2]
[other_rate: 0.1]
[min_data_per_group: 100]
[max_cat_threshold: 32]
[cat_l2: 10]
[cat_smooth: 10]
[max_cat_to_onehot: 4]
[top_k: 20]
[monotone_constraints: ]
[monotone_constraints_method: basic]
[monotone_penalty: 0]
[feature_contri: ]
[forcedsplits_filename: ]
[refit_decay_rate: 0.9]
[cegb_tradeoff: 1]
[cegb_penalty_split: 0]
[cegb_penalty_feature_lazy: ]
[cegb_penalty_feature_coupled: ]
[path_smooth: 0]
[interaction_constraints: ]
[verbosity: 1]
[saved_feature_importance_type: 0]
[linear_tree: 0]
[max_bin: 255]
[max_bin_by_feature: ]
[min_data_in_bin: 3]
[bin_construct_sample_cnt: 200000]
[data_random_seed: 1]
[is_enable_sparse: 1]
[enable_bundle: 1]
[use_missing: 1]
[zero_as_missing: 0]
[feature_pre_filter: 1]
[pre_partition: 0]
[two_round: 0]
[header: 0]
[label_column: ]
[weight_column: ]
[group_column: ]
[ignore_column: ]
[categorical_feature: ]
[forcedbins_filename: ]
[precise_float_parser: 0]
[objective_seed: 5]
[num_class: 1]
[is_unbalance: 0]
[scale_pos_weight: 1]
[sigmoid: 1]
[boost_from_average: 1]
[reg_sqrt: 0]
[alpha: 0.9]
[fair_c: 1]
[poisson_max_delta_step: 0.7]
[tweedie_variance_power: 1.5]
[lambdarank_truncation_level: 30]
[lambdarank_norm: 1]
[label_gain: ]
[eval_at: ]
[multi_error_top_k: 1]
[auc_mu_weights: ]
[num_machines: 1]
[local_listen_port: 12400]
[time_out: 120]
[machine_list_filename: ]
[machines: ]
[gpu_platform_id: -1]
[gpu_device_id: -1]
[gpu_use_dp: 0]
[num_gpu: 1]

end of parameters

pandas_categorical:[]
