tree
version=v3
num_class=1
num_tree_per_iteration=1
label_index=0
max_feature_idx=22
objective=binary sigmoid:1
feature_names=ICULOS HR O2Sat Temp SBP MAP DBP Resp FiO2 pH PaCO2 BUN Calcium Creatinine Glucose Magnesium Potassium Hct Hgb WBC Platelets Age Sex
feature_infos=[-1.1651041666666668:16.282812500000002] [-3.8340323547034147:7.5500299580587171] [-26.132203389830508:0.98644067796610047] [-15.088235294117643:7.8823529411764692] [-4.390328151986183:6.8359240069084626] [-3.8177339901477838:13.423645320197046] [-3.1524796447076242:16.906735751295336] [-3.5506958250497016:16.131212723658052] [-95.301886792452819:2.8113207547169812] [-8.8333333333333375:5.8333333333333428] [-3.5325301204819275:7.0698795180722884] [-1.3057553956834533:10.744604316546763] [-4.3962264150943398:7.9308176100628938] [-0.80555555555555547:10.977777777777776] [-2.7364818617385351:18.732831394022359] [-6.0999999999999996:22.900000000000006] [-5.2222222222222223:16.444444444444443] [-4.1531190926275992:6.4139886578449907] [-4.3879781420765029:7.360655737704918] [-1.5730659025787965:34.372492836676216] [-1.9902132481714228:11.783352220047389] [-2.9321181646763042:2.347580138277813] [0:1]
tree_sizes=3354 3382 3346 3398 3378 3391 3387 3392 3416 3402

Tree=0
num_leaves=31
num_cat=0
split_feature=0 3 3 12 21 8 3 8 21 21 8 19 20 1 0 11 17 15 0 13 12 9 19 15 19 3 19 16 19 20
split_gain=3047.68 1172.96 752.37 614.195 471.583 453.732 417.791 443.854 401.887 365.559 322.218 302.617 331.903 328.492 298.093 478.486 277.239 277.015 288.779 269.449 267.817 253.633 251.969 241.227 334.802 228.709 361.401 401.918 225.25 226.15
threshold=1.5171875000000001 2.1848930481283451 2.1176470588235317 -4.1943396226415084 1.0270270270270274 -0.40837969069602947 1.0891544117647081 0.85800543072337521 0.64833438089252082 1.2740414833438092 0.9147429197453667 -0.96220369887991641 -0.18942851640008765 2.1586493195240957 2.2463541666666669 0.79347431145992309 -2.2077423854917462 -1.6409482758620679 11.256770833333336 -0.14994658119658119 -4.3356394129979021 0.39168069584737036 -0.057103337128590829 -1.4314176245210717 -1.4433301496338744 0.77976190476190765 -0.38387629251276928 0.40851415388452383 2.0075332976479112 -0.13763562228363499
decision_type=2 2 2 2 2 2 2 2 2 2 2 2 2 2 2 2 2 2 2 2 2 2 2 2 2 2 2 2 2 2
left_child=2 3 19 8 5 -3 16 17 14 11 -7 12 13 -4 -2 22 -5 -8 -19 -1 -13 -9 -16 24 -21 -26 27 -27 -18 -30
right_child=1 4 9 6 -6 10 7 21 -10 -11 -12 20 -14 -15 15 -17 28 18 -20 23 -22 -23 -24 -25 25 26 -28 -29 29 -31
leaf_value=-3.8099588557654624 -3.4107976143896006 -0.065407506939231919 -0.52036295037403013 -1.5400906684175313 -0.46917598860284748 -3.002426729252675 -1.2971417143951847 -1.2600111759675277 -3.6186539417198302 -2.3523946599959733 -0.27233885379184564 -1.5400906684175313 -3.6456482699445352 -3.6553528424881279 -2.5888203199473292 -3.0585216310571979 -3.6263458336574632 -3.4406419593641333 -1.5568046013723857 -1.5568046013723857 -3.5831632046470681 -3.0332386657462598 -0.8961318993764813 -3.7632910399676582 -3.6649888011737008 -0.96656014645862198 -3.4855228229752613 -3.8591488659035669 -2.4415677030285248 -3.4367889912889606
leaf_weight=2644.8458994440734 3.1225517019629496 0.57990245893597503 1.0482852142304184 0.64681428112089534 0.91446156986057836 14.006874777376646 0.62451034039258857 1.5389719102531665 5.8213285300880662 2.7210807688534251 0.44607881456613618 0.64681428112089534 1.4051482658833254 0.49068669602274884 1.3382364436984073 3.7470620423555374 365.11550972238183 58.302501063793898 0.8252458069473495 0.8252458069473495 79.714284162968397 1.6950994953513143 2.5649531837552777 1169.4402202665806 50.473817868158221 1.38284432515502 6.1558876410126668 0.73603004403412331 3.0333359390497199 9.2338314615190011
leaf_count=118582 140 26 47 29 41 628 28 69 261 122 20 29 63 22 60 168 16370 2614 37 37 3574 76 115 52432 2263 62 276 33 136 414
internal_value=-3.75681 -3.51706 -3.78549 -3.54644 -2.674 -2.80812 -3.56891 -3.33046 -2.94919 -3.49298 -2.91816 -3.53024 -2.53447 -1.51992 -2.58743 -2.25136 -3.60864 -3.39222 -3.41435 -3.79198 -3.56672 -2.18943 -1.47648 -3.75329 -3.557 -3.5851 -3.0978 -1.97135 -3.61218 -3.1907
internal_weight=0 473.557 3959.89 457.61 15.9473 15.0329 441.016 62.9863 16.5941 86.0263 14.453 83.3052 2.94412 1.53897 10.7728 7.65025 378.029 59.7523 59.1277 3873.86 80.3611 3.23407 3.90319 1229.01 59.5738 58.7486 8.27476 2.11887 377.383 12.2672
internal_count=198774 21232 177542 20517 715 674 19773 2824 744 3857 648 3735 132 69 483 343 16949 2679 2651 173685 3603 145 175 55103 2671 2634 371 95 16920 550
is_linear=0
shrinkage=1


Tree=1
num_leaves=31
num_cat=0
split_feature=0 3 11 19 7 12 16 13 14 4 3 19 16 11 3 10 3 10 13 0 12 20 3 14 11 20 7 11 15 18
split_gain=1654.54 485.541 226.308 211.679 354.319 197.847 218.592 312.221 185.252 209.736 362.459 180.522 377.921 262.932 248.036 213.968 158.937 218.509 152.169 146.941 145.791 642.077 139.51 177.401 211.972 170.106 135.784 132.515 127.05 124.287
threshold=1.4651041666666669 1.5294117647058865 0.18606020161246561 0.37411237074872322 -2.5516898608349892 0.13207547169811321 2.6354957441913958 0.68055555555555569 -1.3443022868074201 -0.74059681443101144 -0.53002450980392002 0.30085959885386832 1.8888888888888891 1.6924460431654678 -2.2738095238095211 4.0293842034805891 -3.4640522875816968 1.2646302797840918 -0.69433333333333314 3.1838541666666669 -4.2864065870628618 0.58398578345523866 0.61823529411764822 -1.1355674401997444 2.9521426337191117 -1.1562589360246054 3.5184278941734211 -1.0000000180025095e-35 -2.7597796143250677 -2.1925550690696798
decision_type=2 2 2 2 2 2 2 2 2 2 2 2 2 2 2 2 2 2 2 2 2 2 2 2 2 2 2 2 2 2
left_child=1 2 16 22 -5 -2 11 -8 9 10 -6 -7 14 -14 -13 19 17 27 -3 -16 21 -20 -4 24 25 -24 29 -1 -22 -25
right_child=5 18 3 4 8 6 7 -9 -10 -11 -12 12 13 -15 15 -17 -18 -19 20 -21 28 -23 23 26 -26 -27 -28 -29 -30 -31
leaf_value=0.10457801630221414 0.1987167747626167 1.6598320641055786 -0.040537914715781817 2.1053894341865944 3.2199833974962617 0.032718752101321698 2.7772026354353181 -0.10322378195002942 0.060405443344907529 0.095551187705987348 0.54553758506220229 1.7598181790205119 0.32569229633554392 2.6340771551637419 0.00023777269788951801 1.8888582671314282 -0.055326278563428588 2.6571737697786748 0.24465019716729866 0.24327760852876976 1.3928963870394728 3.1852565954990495 1.5323480709388122 1.4080511530655446 2.5292833271361239 0.12089825668951325 1.5396023142345088 1.7946557181677854 0.076769422818519867 0.033665217963201592
leaf_weight=3.8677251003682613 327.76271127164364 0.62422342970967193 711.94922331906855 0.86062428168952365 0.72237968072295222 223.54754762910306 0.72920371778309234 0.77760057896375656 250.75330554321408 3.0325326267629853 1.6976327691227195 0.966476920992135 0.92351352795958419 1.0595486275851724 43.824631271883845 0.70298551954328914 2498.9333974979818 0.43486908078193653 12.155400324612852 57.535447187721729 0.73553624004125495 0.79083863273263055 1.0928934738039968 0.66209305264055629 0.53199492394924153 3.9040572419762603 0.60905833542346854 0.52716058678924937 260.21195863559842 105.74840414896607
leaf_count=179 10227 28 32290 39 32 8176 29 29 11403 138 74 39 31 39 1503 28 116761 20 366 1989 30 35 22 30 24 144 28 24 10463 4554
internal_value=0 -0.027892 -0.0377061 0.000519689 0.0797488 0.143683 0.0890333 1.29073 0.0729445 0.649593 1.34387 0.0835222 0.191671 1.55906 0.165352 0.150254 -0.0542186 0.518882 0.100284 0.138195 0.0967298 0.424281 -0.0241828 0.0792748 0.631631 0.429599 0.0507385 0.307301 0.0804792 0.0422167
internal_weight=0 3859.85 3585.33 1081.56 257.066 657.83 330.067 1.5068 256.206 5.45255 2.42001 328.56 105.013 1.98306 103.03 102.063 2503.76 4.82975 274.518 101.36 273.894 12.9462 824.498 112.549 5.52895 4.99695 107.02 4.39489 260.947 106.41
internal_count=198774 176684 165762 48778 11686 22090 11863 58 11647 244 106 11805 3629 70 3559 3520 116984 223 10922 3492 10894 401 37092 4802 190 166 4612 203 10493 4584
is_linear=0
shrinkage=0.1


Tree=2
num_leaves=31
num_cat=0
split_feature=0 3 13 4 3 12 19 3 0 16 13 12 0 12 8 21 11 15 14 13 16 12 20 21 11 3 18 10 10 19
split_gain=1169.69 351.501 185.672 180.158 156.71 277.77 135.22 129.129 163.53 180.39 260.957 251.926 123.519 108.072 145.537 216.752 123.086 159.113 226.817 190.695 161.729 161.762 103.217 156.48 217.026 216.09 126.099 123.118 393.869 98.7833
threshold=1.4130208333333336 1.4192647058823578 -0.17375757575757572 -0.50341824985607375 1.0891544117647081 1.0754716981132078 0.11747851002865346 -1.5606401384083048 -0.35781250000000003 0.57168294668294661 0.17740978157644824 0.49033402109694157 15.892187500000002 -0.1194968553459119 0.88549121665582309 -0.86643620364550566 1.8128608224531488 -0.098809523809522862 -1.0000000180025095e-35 1.980087614496217 1.3683313781352997 -1.0857088404258215 0.41358101909765677 0.96071653048397265 0.73306131214431458 0.1108167531718607 -0.2349726775956287 -0.50761046111370545 -0.80160642570281093 2.2973267778067208
decision_type=2 2 2 2 2 2 2 2 2 2 2 2 2 2 2 2 2 2 2 2 2 2 2 2 2 2 2 2 2 2
left_child=1 2 -1 6 12 -6 -4 8 9 -8 11 -11 13 14 16 -16 -2 18 19 -18 29 -22 -9 -24 25 26 -25 28 -26 -19
right_child=4 -3 3 -5 5 -7 7 22 -10 10 -12 -13 -14 -15 15 -17 17 20 -20 -21 21 -23 23 24 27 -27 -28 -29 -30 -31
leaf_value=-0.054809304991646685 0.08249914576852968 0.065703952580379463 0.0034300450732608887 -0.03466007377505579 0.17516489499822124 1.5744667819987885 0.34034664642364104 0.0310874741277757 0.074512160017729409 1.1985195037705239 0.25541730348958547 3.6797956841821553 1.2692983580482342 0.052309019971073151 1.6649104473164358 0.32824798394355659 2.552446491052248 0.064274870331275241 0.20355862375373027 0.57611885505978355 2.3056575973550877 0.25287117126957509 0.11221126713547346 0.77728214039800914 -0.10248666249403976 -0.1022533503915885 2.5985251373096681 0.063617873413881962 2.9903468280960794 1.0831587071515401
leaf_weight=2169.6867191065103 133.48376446962357 367.61626865528524 278.21576998755336 787.8387502245605 191.92763995751739 1.4291741847991932 5.7290450166910905 98.728268807753921 9.1883519385009986 1.1520841233432295 1.3971529528498647 0.63456947915256012 0.87443696521222491 414.14331874810159 1.345602652058006 12.325866477563974 1.0917530003935096 16.649897618219264 2.2727165948599604 0.8831773567944764 0.70545923709869385 0.84210003539919742 31.91363237798214 0.56845601834356796 1.1334716118872163 0.68806117214262474 1.1477651111781579 5.4709604512900114 0.64666885510087002 1.0092343110591162
leaf_count=107221 3801 13718 12485 35755 3953 35 191 4255 329 47 60 29 31 14309 31 196 34 506 67 29 20 27 1273 26 48 32 51 164 28 23
internal_value=0 -0.0271789 -0.0372389 -0.00610484 0.10745 0.185508 0.045421 0.119175 0.370541 0.675721 1.2792 2.0798 0.0816779 0.0799019 0.146882 0.459808 0.119622 0.330894 0.884746 1.66864 0.208408 1.18864 0.0867438 0.21893 0.571665 1.39501 1.99528 0.298665 1.02104 0.122505
internal_weight=0 3761.76 3394.14 1224.45 778.984 193.357 436.614 158.398 18.1012 8.91285 3.18381 1.78665 585.627 584.753 170.61 13.6715 156.938 23.4543 4.24765 1.97493 19.2067 1.54756 140.297 41.569 9.65538 2.40428 1.71622 7.2511 1.78014 17.6591
internal_count=198774 175712 161994 54773 23062 3988 19018 6533 656 327 136 76 19074 19043 4734 227 4507 706 130 63 576 47 5877 1622 349 109 77 240 76 529
is_linear=0
shrinkage=0.1


Tree=3
num_leaves=31
num_cat=0
split_feature=0 3 19 11 7 13 8 0 3 8 14 16 18 3 1 12 5 20 3 9 20 18 11 9 6 21 18 1 15 13
split_gain=862.789 306.511 175.518 144.762 98.6989 100.519 103.643 221.169 96.5708 94.7905 185.934 320.214 100.79 116.208 87.8136 87.4264 125.299 117.4 85.8284 98.5245 123.257 170.846 244.847 214.391 166.181 137.807 122.841 113.077 103.723 102.053
threshold=1.6213541666666669 1.3455882352941217 0.42559823433748939 0.48081534772182272 2.0076209410205439 0.86564814814814828 -0.39150943396226406 0.31927083333333334 -3.4640522875816968 0.82145660841418955 -0.8195638029085438 -0.45791245791245788 -2.1925550690696798 0.15085784313725772 1.2599898603493573 -0.31591862016390287 -1.1851209135691894 1.3687029978366132 1.4192647058823578 1.0000000180025095e-35 1.3270622901816889 -0.2349726775956287 -0.6820921641065526 1.6652949013232261 -0.043872493804911254 0.80389692017599035 -0.12598004276550268 0.21166730214063981 -0.77433051444679302 0.77222222222222237
decision_type=2 2 2 2 2 2 2 2 2 2 2 2 2 2 2 2 2 2 2 2 2 2 2 2 2 2 2 2 2 2
left_child=1 2 14 9 5 15 7 -7 -5 12 11 -11 13 -4 -1 16 17 -3 19 26 -21 29 24 25 -23 -24 -2 -28 -29 -22
right_child=18 4 3 8 -6 6 -8 -9 -10 10 -12 -13 -14 -15 -16 -17 -18 -19 -20 20 21 22 23 -25 -26 -27 27 28 -30 -31
leaf_value=-0.052893461722393557 0.067986276562809422 0.33403037201372521 2.20328886637507 0.98033765939770479 0.20113559641843981 0.25760276482674244 0.16265709218370616 2.4768009262887505 0.075676462219230994 2.7501391708132936 0.065660592732937978 0.33086696674145788 -0.033226931403007427 -0.10199568573241602 0.011522305977322192 -0.0055310237424642562 0.06860202950132456 1.4995101772536099 0.16291280259405075 0.028266712946212687 -0.009278756952087127 2.8966087898055815 0.15708812015201867 1.9783745064121021 0.65646235940664743 1.3725878467088868 0.10627127541713072 -0.011690492608925043 0.39338259665276815 0.97451072589432364
leaf_weight=2363.1530649308115 135.02816525660455 7.4546915814280492 0.43377314135432143 1.1870316807180632 40.342495378106833 1.6278849132359057 26.545803558081388 0.62017767503857602 198.55604057759047 0.70110908150672946 35.709617510437965 2.4907360617071381 479.69693599641323 0.44096014834940434 232.4464978966862 282.03987337462604 105.74844269640744 0.97763528488576401 140.77587754651904 356.08136826008558 20.071792218834165 0.66676228865981102 11.355528879910702 0.76840242370963174 0.65790519118309088 1.0162158459424961 45.86923922598362 7.5469916462898246 38.923403806984425 1.1128982007503498
leaf_count=117463 3895 244 22 36 1355 49 860 22 7771 32 1598 81 23714 23 11309 10958 3439 21 2285 10038 602 24 302 22 20 32 1319 234 971 33
internal_value=0 -0.0243429 -0.035012 0.00870193 0.0516555 0.0374668 0.217868 0.869818 0.0810527 -0.0191177 0.131022 0.862275 -0.0312713 1.04118 -0.0471248 0.0243568 0.0981831 0.469155 0.0924337 0.0764076 0.0460153 0.223296 0.488226 0.357595 1.78402 0.256929 0.12877 0.217655 0.327597 0.0424028
internal_weight=0 3780.17 3314.82 719.216 465.357 425.015 28.7939 2.24806 199.743 519.473 38.9015 3.19185 480.572 0.874733 2595.6 396.221 114.181 8.43233 759.875 619.099 391.731 35.6495 14.4648 13.1401 1.32467 12.3717 227.368 92.3396 46.4704 21.1847
internal_count=198774 178997 162049 33277 16948 15593 931 71 7807 25470 1711 113 23759 45 128772 14662 3704 265 19777 17492 11073 1035 400 356 44 334 6419 2524 1205 635
is_linear=0
shrinkage=0.1


Tree=4
num_leaves=31
num_cat=0
split_feature=0 1 11 3 5 0 15 16 21 19 9 4 7 13 13 15 10 21 18 20 11 13 17 6 18 16 18 13 12 9
split_gain=659.85 243.736 126.39 113.163 107.963 99.4963 102.359 124.484 131.355 112.721 111.589 102.744 98.6698 182.953 98.1885 93.3699 98.2879 92.1755 331.169 90.07 109.489 90.0145 119.667 88.0974 232.724 206.913 87.9733 96.0583 87.6631 82.1978
threshold=1.3609375000000001 1.2599898603493573 0.2495689722731618 1.5294117647058865 -0.27701662561576362 3.6005208333333338 -0.43333333333333257 1.2576628352490422 -1.1087366436203643 1.2031546308984955 0.012879053974949413 -0.74059681443101144 -2.7509488523405019 -0.36119791666666662 -0.01655982905982906 -2.0971751412429369 -1.3637681159420285 -2.5895663104965423 -0.94535519125683021 4.5248699952074043 1.3804706235011994 0.49079520697167761 -0.34215500945179589 -0.19184202178280654 2.2327293643945931 -0.17432187264923257 -0.016393442622950952 0.91722222222222227 0.13182979559748395 -1.5000000000000049
decision_type=2 2 2 2 2 2 2 2 2 2 2 2 2 2 2 2 2 2 2 2 2 2 2 2 2 2 2 2 2 2
left_child=1 2 3 -1 -4 -2 7 8 11 15 26 -7 13 -3 29 -10 -17 18 -6 -19 -21 -5 -23 24 -14 -26 -8 -28 -13 -11
right_child=5 12 4 21 17 6 10 -9 9 14 -12 28 23 -15 -16 16 -18 19 -20 20 -22 22 -24 -25 25 -27 27 -29 -30 -31
leaf_value=-0.054517394729783314 0.038684371419209586 2.0571165271920444 0.031845355265789847 0.017051585091329653 3.045334909860514 0.13393211700008953 0.091468665666787394 1.0329595873608868 0.93359747813538851 0.28387152206034599 0.040060615296618168 0.6160325238660993 0.08632595437127627 0.045515145114489369 -0.1069710822698812 0.59604984085627988 0.059757162214957242 -0.041231577935324594 -0.10234721788138064 -0.1024601182814201 1.7018390641982277 1.5977037501983797 0.17714306629434642 0.0056577093530655242 2.3635891381620162 0.040934385677475399 0.22266698245947897 0.73070333246566888 1.6540482660931752 1.1860923129673222
leaf_weight=2014.9912439156324 502.05086529999971 0.69445636868476857 447.25048947706819 190.65103655681014 0.44481696002185334 4.1116554755717516 73.723922407254577 1.7580526266247023 1.3294901065528382 1.7072641327977178 237.01403054781258 5.119964584708212 171.13944316469133 1.2956390380859364 1.5844263024628151 3.6044267155230036 65.86311300098896 481.30185078829527 1.3446551281958807 0.68927814438938984 0.65679203905165195 0.82304360531270537 2.1216230224817982 266.1584901958704 0.85153662227094173 0.69788897596299537 41.049323784187436 4.0928061641752711 0.9673085119575261 2.4717930741608143
leaf_count=107181 13668 28 19230 6215 23 74 1730 46 27 14 5794 90 7078 40 32 48 1680 22564 62 30 16 27 57 12026 37 32 791 60 31 43
internal_value=0 -0.0246962 -0.0344709 -0.0475011 -0.00358259 0.0691891 0.103651 0.199882 0.183001 0.138091 0.0797159 0.520125 0.0449336 0.747476 0.563363 0.103471 0.0875835 -0.036291 0.680086 -0.038947 0.777917 0.0255259 0.574194 0.0417477 0.0973718 1.31742 0.158787 0.268728 0.78098 0.817509
internal_weight=0 3581.11 3140.27 2208.59 931.688 946.448 444.398 88.5175 86.7594 76.5605 355.88 10.1989 440.837 1.9901 5.76348 70.797 69.4675 484.437 1.78947 482.648 1.34607 193.596 2.94467 438.847 172.689 1.54943 118.866 45.1421 6.08727 4.17906
internal_count=198774 174646 155405 113480 41925 24128 10460 2085 2039 1844 8375 195 19241 68 89 1755 1728 22695 85 22610 46 6299 84 19173 7147 69 2581 851 121 57
is_linear=0
shrinkage=0.1


Tree=5
num_leaves=31
num_cat=0
split_feature=0 3 13 5 0 0 3 12 19 19 13 3 7 9 12 20 14 20 10 9 19 7 19 11 18 20 0 1 20 15
split_gain=511.899 209.527 146.097 124.647 98.7077 139.402 90.46 97.754 99.6093 137.639 93.2144 85.0589 74.3275 73.2564 238.602 72.7877 71.711 167.284 67.0187 219.146 102.407 66.7257 66.664 81.196 175.931 107.486 253.542 63.1799 62.9722 61.8547
threshold=1.3609375000000001 1.8248910675381305 -0.17375757575757572 0.12325533661740552 -1.0348958333333333 -0.61822916666666672 -1.7159926470588245 -0.1194968553459119 -0.12766634829672072 0.017191977077363915 0.49079520697167761 1.0147058823529431 0.95678311085865775 2.1628489829224207 0.50943396226415083 -1.4510087595534671 -1.0935286721909114 -1.4510087595534671 1.8742765319651811 -1.0000000180025095e-35 1.525256891611501 3.5184278941734211 0.43510443918441921 0.45869019070457923 2.0601092896174871 -0.86712828739201442 0.26718750000000002 -0.25297440725840953 3.1879162011025626 -0.40749198717948609
decision_type=2 2 2 2 2 2 2 2 2 2 2 2 2 2 2 2 2 2 2 2 2 2 2 2 2 2 2 2 2 2
left_child=1 2 12 4 -4 6 7 8 -6 10 -10 -2 -1 -3 28 -8 17 -7 29 20 -20 -18 -14 -24 25 26 -25 -23 -15 -17
right_child=11 13 3 -5 5 16 15 -9 9 -11 -12 -13 22 14 -16 18 21 -19 19 -21 -22 27 23 24 -26 -27 -28 -29 -30 -31
leaf_value=-0.054411131516750505 0.039434834734331514 0.057207564326398036 -0.10478856295537582 -0.043342885001451899 0.0087308837115479803 1.989211076596046 0.46508204001991216 0.1559984241653723 1.0441897231780217 0.62588589269949901 3.1598956787984989 0.10400095241656637 -0.02954385529087232 0.045445429734270522 1.6682462320074465 0.14554853681315241 -0.0081066831320961621 0.10757303889597383 -0.0060147151984579501 2.177571839360628 0.96064305702253228 1.2032142188955142 0.041941934353964531 2.8067642910337582 2.2610859456828045 0.097216084399349423 -0.10242354931700176 0.17783048232728368 0.84199236156816493 0.012676762186051941
leaf_weight=1717.8105320297182 720.23765952326357 220.30520201288164 56.868953393772244 468.79331545718014 1.7621034663170574 0.47764718905091186 4.8455791361629954 12.648692538961766 0.43615683726966636 3.5160616878420115 0.39851648174226284 284.68732606805861 232.92002870514989 7.3522407021373493 1.1839340515434731 53.216547001153231 482.28583283722401 43.658342005684972 5.1088440865278244 0.61410931684076686 1.3952401783317325 0.8381042014807466 77.359787683933973 0.51554675959050633 0.46540540829300869 6.5104423705488426 0.71512259356677532 2.1232042945921412 1.1473767291754482 102.54918236657977
leaf_count=94887 19330 6295 2471 22977 78 16 114 317 21 87 19 4798 12618 148 33 2089 21560 1540 232 30 26 20 3966 21 20 279 31 72 11 4668
internal_value=0 -0.023226 -0.0296998 -0.00266224 0.0220171 0.0320906 0.106439 0.314682 0.64303 0.899929 2.05434 0.0577259 -0.0461847 0.06904 0.338234 0.083146 0.00589904 0.127936 0.0717839 0.371845 0.20135 -0.00520096 -0.00181396 0.0736696 0.372754 0.259225 1.11628 0.468033 0.152973 0.0580717
internal_weight=0 3507.82 3277.83 1241.54 772.743 715.874 186.491 18.7615 6.11284 4.35074 0.834673 1004.92 2036.3 229.989 9.68355 167.73 529.383 44.136 162.884 7.11819 6.50408 485.247 318.486 85.5663 8.20652 7.74111 1.23067 2.96131 8.49962 155.766
internal_count=198774 174646 168159 56337 33360 30889 7681 522 205 127 40 24128 111822 6487 192 7159 23208 1556 7045 288 258 21652 16935 4317 351 331 52 92 159 6757
is_linear=0
shrinkage=0.1


Tree=6
num_leaves=31
num_cat=0
split_feature=0 1 0 0 20 3 12 8 16 10 1 11 10 15 17 3 13 15 11 19 20 14 10 16 15 12 16 8 22 18
split_gain=412.203 188.09 120.446 106.353 98.3463 88.1479 78.2405 92.2618 151.935 190.033 118.482 89.9448 181.369 241.014 169.891 177.411 76.8082 76.7598 76.7445 273.468 121.796 170.401 397.271 349.463 76.5942 73.51 81.621 74.275 74.8827 69.3353
threshold=1.4130208333333336 0.39171826110112545 -1.0348958333333333 -0.67031249999999998 -1.2339720476631981 -1.4840686274509782 -0.3707833047455687 0.82145660841418955 -0.96296296296296324 0.20031859886575804 1.7394690910985493 3.4317589406735487 0.58396325026131934 1.5646341463414648 0.83773400817123045 0.27079831932772919 -0.69433333333333314 0.51538461538461622 -0.57810867293625912 2.2973267778067208 -0.22581116742735088 -0.95648548073670214 -0.25539110757751821 -1.0864197530864195 -2.7597796143250677 0.13207547169811321 0.32383040935672497 -0.48556592448300073 1.0000000180025095e-35 0.47228472445444519
decision_type=2 2 2 2 2 2 2 2 2 2 2 2 2 2 2 2 2 2 2 2 2 2 2 2 2 2 2 2 2 2
left_child=1 5 -3 4 17 -1 7 18 9 10 -9 -8 14 -14 -13 -16 -6 -4 19 20 -5 22 23 -22 -20 -2 -27 28 -28 -23
right_child=25 2 3 6 16 -7 11 8 -10 -11 -12 12 13 -15 15 -17 -18 -19 24 -21 21 29 -24 -25 -26 26 27 -29 -30 -31
leaf_value=0.032730348571161187 0.075955252839487619 -0.10398164747978829 0.2111758254549686 -0.019649677454277637 0.96466784102335823 -0.044791814384615519 -0.017394803879883181 1.0040838545192796 0.17282028742691335 -0.10278137056751768 3.0196594354248183 -0.053554892077777687 2.4480381975430023 0.16778386232605388 -0.10208309547199362 2.8001207052442618 0.055333451681546519 0.78029357351356821 1.3657681226738947 2.6343370508989832 5.0577085865814837 0.12808918821136211 -0.1026158212147591 1.1755994427404342 -0.0061289372853391266 -0.0033173372388716109 0.22134811754427722 0.072769504959824843 1.0741764198320554 0.6594485812068499
leaf_weight=157.92454157024622 535.64355807751417 87.35508722346276 12.397307656705378 26.071054780855775 0.93245132826268573 2059.3507001549006 713.2391710197553 0.62812241911888012 9.7614522911608201 0.74464082717895497 0.54442773945629597 8.1932735797017777 0.82334347814321418 1.0606562681496141 0.39762530662119466 0.44789345748722553 242.63367224298418 2.9300014954060307 0.40837153606116672 0.43852113746106525 0.36825662478804599 16.424824478104714 1.1750518903136278 0.62615356221795104 117.84294452518225 351.69214058667421 3.6445529032498589 135.41135906614363 1.4349418226629493 2.8874188922345629
leaf_count=7520 10690 4266 355 1147 31 109899 35003 23 428 31 21 370 35 33 20 20 10719 94 15 22 22 676 52 34 4740 9113 82 3138 39 136
internal_value=0 -0.02179 0.00925828 0.0177788 0.0742759 -0.0392703 0.00156437 0.0609794 0.332668 1.14654 1.93994 -0.0130335 0.271754 1.1643 0.0857167 1.43529 0.0588147 0.31997 0.0418931 0.148546 0.125623 0.301932 1.14225 2.61325 -0.0013912 0.0503199 0.022421 0.086852 0.46227 0.207534
internal_weight=0 3465.61 1248.33 1160.98 258.893 2217.28 902.083 177.921 11.6786 1.91719 1.17255 724.162 10.9228 1.884 9.03879 0.845519 243.566 15.3273 166.243 47.9913 47.5528 21.4817 2.16946 0.99441 118.251 1027.83 492.183 140.491 5.07949 19.3122
internal_count=198774 175712 58293 54027 11199 117419 42828 7347 503 75 44 35481 478 68 410 40 10750 449 6844 2089 2067 920 108 56 4755 23062 12372 3259 121 812
is_linear=0
shrinkage=0.1


Tree=7
num_leaves=31
num_cat=0
split_feature=0 3 19 3 13 18 21 20 17 7 15 15 13 13 7 7 20 21 3 0 7 8 17 20 10 0 15 1 8 21
split_gain=339.569 166.75 127.782 76.7673 89.1599 91.064 179.282 72.7378 91.9837 100.409 68.3236 67.6618 124.305 67.3042 63.4044 61.2161 56.4246 67.2125 111.558 55.2255 75.9716 55.6484 63.3256 108.648 80.0718 231.514 59.0087 53.0943 53.0764 56.3254
threshold=1.3088541666666669 1.3455882352941217 0.43510443918441921 0.044389978213508471 3.5647306397306404 -1.2268304454096801 0.14582023884349468 -1.1260886946535265 2.9935291551548642 -3.547589463220675 1.5646341463414648 3.9072463768115955 0.60578316610925331 -0.69433333333333314 -1.3118561359118013 0.69052352551358542 -1.6143940534586461 -0.044626021370207235 2.4128151260504196 -1.0348958333333333 -3.3505453763903064 0.79251070725778472 -1.1471104509856869 4.5248699952074043 -1.6044229549778055 0.73593750000000002 -0.33333333333333248 4.0898741761533861 0.89941748474088523 0.43777498428661199
decision_type=2 2 2 2 2 2 2 2 2 2 2 2 2 2 2 2 2 2 2 2 2 2 2 2 2 2 2 2 2 2
left_child=1 2 7 4 11 6 -6 8 9 -1 -7 19 14 -5 -13 28 17 18 -3 -4 -21 22 23 24 25 -22 -26 -15 -2 -30
right_child=15 16 3 13 5 10 -8 -9 -10 -11 -12 12 -14 27 -16 -17 -18 -19 -20 20 21 -23 -24 -25 26 -27 -28 -29 29 -31
leaf_value=1.5503805480808015 0.019337361566628866 1.3352645056142043 -0.10375633717226006 0.99677409055366606 0.26286544267298206 0.0045596841391806631 2.0741003814620931 -0.04768942063029738 1.1499938903055233 0.009220728492010213 0.98872356358133107 0.91854313032479795 1.816142809882038 -0.034084754934491555 -0.10326084136868914 0.076567213982189297 0.028752998844136964 0.08477517679533153 0.029644224101040263 1.2524466078477945 -0.10261145462266297 0.14814110256873089 0.0047952590325144612 1.2499769999562169 0.26349770523127453 2.4923510078782694 -0.026439933309530334 1.0937053010255351 0.23132914960095574 0.015680706668650745
leaf_weight=0.42368991114199062 716.47222007066011 1.3741875011473896 29.813428872264922 0.63670376129448314 1.6122740898281338 4.8818112630397064 0.82672161608934391 2029.5012308526784 0.71377783920615812 189.49293959606439 0.82454315572977055 0.86826664209365922 0.57309046201407898 293.35357150156051 2.0202681422233573 352.3241395317018 471.8639840297401 4.8320977613329879 1.2494830302894113 0.51462559774517913 0.94735350459814671 39.287464229390025 256.82189753092825 0.88003337010741134 11.533858792856345 0.53965702280402184 17.934350697323673 0.41803226992487807 25.136411529034376 23.375073432922363
leaf_count=25 17210 33 1504 30 38 136 29 115768 25 9709 32 20 21 15035 82 7367 16162 58 24 17 47 1216 12271 16 385 30 745 19 315 405
internal_value=0 -0.0215526 -0.0306288 0.00784952 0.0381783 0.365364 0.876801 -0.042142 0.0169175 0.0126589 0.146767 0.0308109 0.470802 -0.030254 0.203884 0.0420766 0.0330658 0.306016 0.713483 0.0265597 0.0383882 0.036483 0.0212859 0.154319 0.12317 0.839137 0.0870417 -0.0324799 0.0261914 0.12742
internal_weight=0 3363.74 2884.42 664.288 369.88 8.14535 2.439 2220.13 190.63 189.917 5.70635 361.734 3.46163 294.408 2.88853 1117.31 479.32 7.45577 2.62367 358.273 328.459 327.945 288.657 31.8353 30.9552 1.48701 29.4682 293.772 764.984 48.5115
internal_count=198774 173477 157200 31673 16589 235 67 125527 9759 9734 168 16354 123 15084 102 25297 16277 115 57 16231 14727 14710 13494 1223 1207 77 1130 15054 17930 720
is_linear=0
shrinkage=0.1


Tree=8
num_leaves=31
num_cat=0
split_feature=0 0 1 11 0 12 9 3 13 0 12 7 5 19 20 6 2 0 15 21 21 14 17 9 10 21 9 18 17 21
split_gain=280.572 173.27 177.977 129.895 99.6349 98.3821 62.4764 60.4502 81.7813 129.321 73.2476 62.9365 62.1432 70.9127 58.3092 110.268 188.412 57.9476 54.6617 214.616 193.377 74.7944 52.7176 61.6998 56.3564 54.9459 52.3693 75.1753 66.4715 59.4576
threshold=2.2463541666666669 -1.0348958333333333 1.2599898603493573 0.012800149490796957 -0.56614583333333324 -4.1943396226415084 1.3329103214890043 0.79411764705882759 -0.52766666666666662 -1.0000000180025095e-35 -4.3356394129979021 2.3186336526296771 -0.029741379310344641 0.23392145259748356 -1.7427450383183805 0.42313539154588814 -0.037027379400260976 -0.77447916666666672 -1.099999999999999 1.2740414833438092 1.5311125078566941 -1.1355674401997444 0.7996219281663518 1.4166666666666738 -0.16322318258541393 -0.29541169076052787 0.16666666666667054 -0.077109896782027829 -1.6656764785309208 1.3837209302325584
decision_type=2 2 2 2 2 2 2 2 2 2 2 2 2 2 2 2 2 2 2 2 2 2 2 2 2 2 2 2 2 2
left_child=1 -1 3 5 -5 6 -3 12 9 -9 -10 18 13 -6 15 -7 -17 -4 19 21 -21 -12 24 -24 -8 -26 27 28 -2 -30
right_child=26 2 17 4 7 14 22 8 10 -11 11 -13 -14 -15 -16 16 -18 -19 -20 20 -22 -23 23 -25 25 -27 -28 -29 29 -31
leaf_value=-0.10332164877447868 0.28054538581943245 0.033800350526043355 0.12102549716865046 0.053472593352150821 -0.032728361121996362 0.040254945695991695 0.11868058213438615 -0.10183240656891093 1.0918762302380731 2.5106614733357224 0.69667880296545104 0.26195873266549757 -0.059859070964865958 0.051733648779844481 -0.043976981572994719 0.19078142273428045 2.9385321966572295 0.028371710360405235 -0.0039159616322094826 2.5094949544123173 0.067375633264905241 -0.011715944651600212 0.2343606005184925 1.4694517237133335 1.3954169501078009 0.16939988122333138 0.02736504632994587 0.13694257624126671 0.017038886999507532 0.55654328096149441
leaf_weight=219.80148026626557 10.676590476185082 48.200361858122051 80.258301453664899 306.39066479355097 258.76315490622073 3.4546486716717473 9.8300498677417618 0.42106648348271847 0.65648752823471923 0.3445024760439982 1.7104762736707915 11.203068985603748 300.15379390027374 161.40791955310851 1683.6778309876099 0.67906805500388145 0.39453424699604489 424.6538265645504 133.70749233383685 0.72673941776156314 0.5854480192065239 11.586884104646741 0.86154967546462902 0.76238477323204279 0.73308966588228941 0.72910693008452543 477.43340749666095 133.37870903499424 171.46377166733146 2.0673912018537512
leaf_count=12684 131 1870 2844 13442 13041 128 322 24 8 20 31 242 15767 5783 95202 34 21 16168 4941 20 28 348 30 27 22 19 9709 2236 3602 30
internal_value=0 -0.0172413 -0.0117442 -0.0211726 0.00435058 -0.038501 0.0861387 -0.0127277 0.0426805 1.07378 0.0377524 0.0334142 -0.0251076 -0.000282441 -0.0430132 0.315347 1.20054 0.0430995 0.0161512 0.199807 1.41991 0.0794068 0.281454 0.814196 0.204841 0.784078 0.0482977 0.0797661 0.0383665 0.0234664
internal_weight=0 3661.69 3441.89 2936.98 1187.66 1749.32 61.1165 881.267 160.942 0.765569 160.177 159.52 720.325 420.171 1688.21 4.52825 1.0736 504.912 148.317 14.6095 1.31219 13.2974 12.9162 1.62393 11.2922 1.4622 795.02 317.586 184.208 173.531
internal_count=198774 183066 170382 151370 53695 97675 2290 40253 5662 44 5618 5610 34591 18824 95385 183 55 19012 5368 427 48 379 420 57 363 41 15708 5999 3763 3632
is_linear=0
shrinkage=0.1


Tree=9
num_leaves=31
num_cat=0
split_feature=0 0 0 3 11 12 19 7 3 19 15 7 15 14 1 20 14 12 3 12 19 21 12 10 19 1 9 9 21 13
split_gain=231.603 149.317 162.909 102.264 95.3132 99.1584 84.7347 83.5725 82.7473 79.1817 83.1294 73.371 72.9922 56.6868 93.7992 54.993 116.317 132.31 95.4527 53.6802 133.763 93.0902 93.8495 228.153 236.219 127.791 66.742 113.455 83.57 163.971
threshold=1.3088541666666669 -1.0348958333333333 -0.56614583333333324 1.236213235294122 0.35809644966953275 2.7482909488651908 1.7990868571097798 -1.2634757492779169 2.4128151260504196 -0.86618080644491491 0.23333333333333359 0.52612529948514042 -1.8448894451397575 3.944668524493987 1.591632583947691 -1.0671232324499127 -0.95648548073670214 -0.061043899788963421 -0.7788461538461563 -0.30817610062893058 -0.74212034383954129 -1.8004399748585793 -0.31591862016390287 -0.039675498790134413 -0.81356340492430956 -0.66061799195412085 0.12450953238240342 0.16666666666667054 -1.0000000180025095e-35 -0.30549242424242423
decision_type=2 2 2 2 2 2 2 2 2 2 2 2 2 2 2 2 2 2 2 2 2 2 2 2 2 2 2 2 2 2
left_child=1 -1 4 6 5 8 19 -8 -3 10 -5 -12 -10 -11 -15 16 17 -6 -19 20 21 -4 26 -24 25 -25 -23 -28 -29 -30
right_child=-2 2 3 9 15 -7 7 -9 12 13 11 -13 -14 14 -16 -17 -18 18 -20 -21 -22 22 23 24 -26 -27 27 28 29 -31
leaf_value=-0.10306479595779981 0.032507929725155704 -0.0084135010691941611 1.4504917302244147 0.072544027025351607 -0.10271421398172398 1.5123414423659141 0.41688129252081385 0.034032629680101151 0.63923252343620918 0.0063433260691517406 0.96262809160993401 0.2523932492816332 0.11138208847494968 -0.10285814107505603 1.6081395800063771 0.055559672412067586 0.14812527572858747 2.6473941808823978 0.81910322315786555 -0.050923064457047397 -0.026944653258022283 -0.068853614160878901 0.072847042270688472 1.5494444877931117 -0.10166222515519946 4.1837880072456475 1.2075227609323234 -0.080183743771027549 1.4221796959590245 0.17362373054692448
leaf_weight=199.35514460317791 1179.7646541502327 601.17514584586024 0.57985424250364559 12.695956087671222 0.72182851098477829 0.43359179701656003 6.2240445325151077 67.947857197374105 2.9098817035555866 340.73395185358822 2.3298502005636683 3.8714915737509727 26.271723985671997 0.70978051330894121 0.58405828848481178 241.20569659024477 28.298643844202161 0.50908235274255265 0.65037608891725796 1429.8967266110703 256.06963009387255 11.808963311836129 2.2005902333185081 0.36336181033402681 0.41365622077137121 0.37334351800382137 1.143505468033253 6.6734598716720983 1.31231078132987 5.2995464168488917
leaf_count=12684 25297 33156 37 246 30 22 197 2617 37 12262 42 77 503 29 18 9364 776 21 24 86262 13543 641 106 21 26 22 45 376 83 210
internal_value=0 -0.0192139 -0.0137394 -0.0286977 0.0219286 0.000608826 -0.0384872 0.0661589 -0.000431021 0.0198616 0.219128 0.519229 0.164017 0.00885199 0.669512 0.0714827 0.198744 0.960154 1.62185 -0.04301 -0.00348065 0.195681 0.17109 0.669437 1.81069 2.88446 0.107444 0.25173 0.169463 0.421435
internal_weight=0 3252.76 3053.41 2151.23 902.176 630.79 1790.31 74.1719 630.357 360.925 18.8973 6.20134 29.1816 342.028 1.29384 271.386 30.1799 1.88129 1.15946 1716.13 286.238 30.1686 29.5887 3.35095 1.15036 0.736705 26.2378 14.4288 13.2853 6.61186
internal_count=198774 173477 160793 116860 43933 33718 104186 2814 33696 12674 365 119 540 12309 47 10215 851 75 45 101372 15110 1567 1530 175 69 43 1355 714 669 293
is_linear=0
shrinkage=0.1


end of trees

feature_importances:
ICULOS=30
Temp=30
WBC=22
Calcium=20
Creatinine=20
Platelets=19
Magnesium=17
Age=17
BUN=16
Resp=13
pH=12
PaCO2=12
Hgb=12
HR=11
Potassium=11
FiO2=10
Glucose=9
Hct=7
MAP=4
SBP=3
DBP=3
O2Sat=1
Sex=1

parameters:
[boosting: gbdt]
[objective: binary]
[metric: binary_logloss]
[tree_learner: serial]
[device_type: cpu]
[data: ]
[valid: ]
[num_iterations: 10]
[learning_rate: 0.1]
[num_leaves: 31]
[num_threads: 0]
[deterministic: 0]
[force_col_wise: 0]
[force_row_wise: 0]
[histogram_pool_size: -1]
[max_depth: -1]
[min_data_in_leaf: 20]
[min_sum_hessian_in_leaf: 0.001]
[bagging_fraction: 1]
[pos_bagging_fraction: 1]
[neg_bagging_fraction: 1]
[bagging_freq: 0]
[bagging_seed: 3]
[feature_fraction: 1]
[feature_fraction_bynode: 1]
[feature_fraction_seed: 2]
[extra_trees: 0]
[extra_seed: 6]
[early_stopping_round: 0]
[first_metric_only: 0]
[max_delta_step: 0]
[lambda_l1: 0]
[lambda_l2: 0]
[linear_lambda: 0]
[min_gain_to_split: 0]
[drop_rate: 0.1]
[max_drop: 50]
[skip_drop: 0.5]
[xgboost_dart_mode: 0]
[uniform_drop: 0]
[drop_seed: 4]
[top_rate: 0.2]
[other_rate: 0.1]
[min_data_per_group: 100]
[max_cat_threshold: 32]
[cat_l2: 10]
[cat_smooth: 10]
[max_cat_to_onehot: 4]
[top_k: 20]
[monotone_constraints: ]
[monotone_constraints_method: basic]
[monotone_penalty: 0]
[feature_contri: ]
[forcedsplits_filename: ]
[refit_decay_rate: 0.9]
[cegb_tradeoff: 1]
[cegb_penalty_split: 0]
[cegb_penalty_feature_lazy: ]
[cegb_penalty_feature_coupled: ]
[path_smooth: 0]
[interaction_constraints: ]
[verbosity: 1]
[saved_feature_importance_type: 0]
[linear_tree: 0]
[max_bin: 255]
[max_bin_by_feature: ]
[min_data_in_bin: 3]
[bin_construct_sample_cnt: 200000]
[data_random_seed: 1]
[is_enable_sparse: 1]
[enable_bundle: 1]
[use_missing: 1]
[zero_as_missing: 0]
[feature_pre_filter: 1]
[pre_partition: 0]
[two_round: 0]
[header: 0]
[label_column: ]
[weight_column: ]
[group_column: ]
[ignore_column: ]
[categorical_feature: ]
[forcedbins_filename: ]
[precise_float_parser: 0]
[objective_seed: 5]
[num_class: 1]
[is_unbalance: 0]
[scale_pos_weight: 1]
[sigmoid: 1]
[boost_from_average: 1]
[reg_sqrt: 0]
[alpha: 0.9]
[fair_c: 1]
[poisson_max_delta_step: 0.7]
[tweedie_variance_power: 1.5]
[lambdarank_truncation_level: 30]
[lambdarank_norm: 1]
[label_gain: ]
[eval_at: ]
[multi_error_top_k: 1]
[auc_mu_weights: ]
[num_machines: 1]
[local_listen_port: 12400]
[time_out: 120]
[machine_list_filename: ]
[machines: ]
[gpu_platform_id: -1]
[gpu_device_id: -1]
[gpu_use_dp: 0]
[num_gpu: 1]

end of parameters

pandas_categorical:[]
